FANN_FLO_2.1
num_layers=5
learning_rate=0.700000
connection_rate=1.000000
network_type=0
learning_momentum=0.000000
training_algorithm=2
train_error_function=1
train_stop_function=0
cascade_output_change_fraction=0.010000
quickprop_decay=-0.000100
quickprop_mu=1.750000
rprop_increase_factor=1.200000
rprop_decrease_factor=0.500000
rprop_delta_min=0.000000
rprop_delta_max=50.000000
rprop_delta_zero=0.100000
cascade_output_stagnation_epochs=12
cascade_candidate_change_fraction=0.010000
cascade_candidate_stagnation_epochs=12
cascade_max_out_epochs=150
cascade_max_cand_epochs=150
cascade_num_candidate_groups=2
bit_fail_limit=3.49999994039535522461e-01
cascade_candidate_limit=1.00000000000000000000e+03
cascade_weight_multiplier=4.00000005960464477539e-01
cascade_activation_functions_count=10
cascade_activation_functions=3 5 7 8 10 11 14 15 16 17 
cascade_activation_steepnesses_count=4
cascade_activation_steepnesses=2.50000000000000000000e-01 5.00000000000000000000e-01 7.50000000000000000000e-01 1.00000000000000000000e+00 
layer_sizes=2 11 21 11 2 
scale_included=1
scale_mean_in=0.500000 
scale_deviation_in=0.288819 
scale_new_min_in=0.000000 
scale_factor_in=0.500000 
scale_mean_out=0.343560 
scale_deviation_out=0.279923 
scale_new_min_out=0.000000 
scale_factor_out=0.500000 
neurons (num_inputs, activation_function, activation_steepness)=(0, 0, 0.00000000000000000000e+00) (0, 0, 0.00000000000000000000e+00) (2, 3, 5.00000000000000000000e-01) (2, 3, 5.00000000000000000000e-01) (2, 3, 5.00000000000000000000e-01) (2, 3, 5.00000000000000000000e-01) (2, 3, 5.00000000000000000000e-01) (2, 3, 5.00000000000000000000e-01) (2, 3, 5.00000000000000000000e-01) (2, 3, 5.00000000000000000000e-01) (2, 3, 5.00000000000000000000e-01) (2, 3, 5.00000000000000000000e-01) (0, 3, 0.00000000000000000000e+00) (11, 3, 5.00000000000000000000e-01) (11, 3, 5.00000000000000000000e-01) (11, 3, 5.00000000000000000000e-01) (11, 3, 5.00000000000000000000e-01) (11, 3, 5.00000000000000000000e-01) (11, 3, 5.00000000000000000000e-01) (11, 3, 5.00000000000000000000e-01) (11, 3, 5.00000000000000000000e-01) (11, 3, 5.00000000000000000000e-01) (11, 3, 5.00000000000000000000e-01) (11, 3, 5.00000000000000000000e-01) (11, 3, 5.00000000000000000000e-01) (11, 3, 5.00000000000000000000e-01) (11, 3, 5.00000000000000000000e-01) (11, 3, 5.00000000000000000000e-01) (11, 3, 5.00000000000000000000e-01) (11, 3, 5.00000000000000000000e-01) (11, 3, 5.00000000000000000000e-01) (11, 3, 5.00000000000000000000e-01) (11, 3, 5.00000000000000000000e-01) (0, 3, 0.00000000000000000000e+00) (21, 3, 5.00000000000000000000e-01) (21, 3, 5.00000000000000000000e-01) (21, 3, 5.00000000000000000000e-01) (21, 3, 5.00000000000000000000e-01) (21, 3, 5.00000000000000000000e-01) (21, 3, 5.00000000000000000000e-01) (21, 3, 5.00000000000000000000e-01) (21, 3, 5.00000000000000000000e-01) (21, 3, 5.00000000000000000000e-01) (21, 3, 5.00000000000000000000e-01) (0, 3, 0.00000000000000000000e+00) (11, 3, 5.00000000000000000000e-01) (0, 3, 0.00000000000000000000e+00) 
connections (connected_to_neuron, weight)=(0, 4.34278392791748046875e+00) (1, -9.26087677478790283203e-01) (0, -2.98234629631042480469e+00) (1, 1.13525748252868652344e+00) (0, 4.37622070312500000000e+00) (1, -1.18238019943237304688e+00) (0, 2.84651875495910644531e+00) (1, -8.34519982337951660156e-01) (0, 4.35898065567016601562e+00) (1, -1.13910007476806640625e+00) (0, -3.27199912071228027344e+00) (1, 1.11587226390838623047e+00) (0, 2.75654673576354980469e+00) (1, -7.28258967399597167969e-01) (0, 2.78478789329528808594e+00) (1, -7.10047602653503417969e-01) (0, -3.29753851890563964844e+00) (1, 1.11947321891784667969e+00) (0, 3.60526514053344726562e+00) (1, -2.94650524854660034180e-01) (2, -6.40449047088623046875e-01) (3, 2.11568593978881835938e+00) (4, -6.16790056228637695312e-01) (5, -6.81862771511077880859e-01) (6, -7.04583764076232910156e-01) (7, 2.21955943107604980469e+00) (8, -6.92969858646392822266e-01) (9, -7.46981680393218994141e-01) (10, 2.16709256172180175781e+00) (11, -2.79541105031967163086e-01) (12, 3.03848117589950561523e-01) (2, -3.33422392606735229492e-01) (3, 2.57221531867980957031e+00) (4, -4.69543695449829101562e-01) (5, -8.70315730571746826172e-01) (6, -4.31124687194824218750e-01) (7, 2.04785275459289550781e+00) (8, -7.35415160655975341797e-01) (9, -8.74648511409759521484e-01) (10, 2.54580140113830566406e+00) (11, -2.49326214194297790527e-01) (12, 3.29649865627288818359e-01) (2, -4.00733023881912231445e-01) (3, 2.71467518806457519531e+00) (4, -5.21840155124664306641e-01) (5, -8.11231791973114013672e-01) (6, -4.33272272348403930664e-01) (7, 2.08195471763610839844e+00) (8, -8.41600835323333740234e-01) (9, -7.54164755344390869141e-01) (10, 2.65398406982421875000e+00) (11, -4.05321389436721801758e-01) (12, 2.97451734542846679688e-01) (2, -4.82310444116592407227e-01) (3, 2.61844015121459960938e+00) (4, -4.99885112047195434570e-01) (5, -7.79970705509185791016e-01) (6, -3.94034177064895629883e-01) (7, 2.09794163703918457031e+00) (8, -8.46429049968719482422e-01) (9, -7.35410869121551513672e-01) (10, 2.71727418899536132812e+00) (11, -3.90745371580123901367e-01) (12, 2.75113195180892944336e-01) (2, -6.49962484836578369141e-01) (3, 2.14655208587646484375e+00) (4, -6.26953125000000000000e-01) (5, -7.72466242313385009766e-01) (6, -7.05265760421752929688e-01) (7, 2.03521752357482910156e+00) (8, -7.57837653160095214844e-01) (9, -7.66692221164703369141e-01) (10, 2.14836311340332031250e+00) (11, -1.84442460536956787109e-01) (12, 2.74287611246109008789e-01) (2, -2.89490193128585815430e-01) (3, 2.60088205337524414062e+00) (4, -4.23402339220046997070e-01) (5, -9.79039907455444335938e-01) (6, -4.88223105669021606445e-01) (7, 2.03924155235290527344e+00) (8, -7.38749206066131591797e-01) (9, -6.78283631801605224609e-01) (10, 2.03227162361145019531e+00) (11, -3.55999439954757690430e-01) (12, 3.73010486364364624023e-01) (2, -6.49638354778289794922e-01) (3, 2.22649502754211425781e+00) (4, -6.49196207523345947266e-01) (5, -7.22053587436676025391e-01) (6, -7.81484901905059814453e-01) (7, 2.10706400871276855469e+00) (8, -7.35952317714691162109e-01) (9, -7.08376407623291015625e-01) (10, 2.07775568962097167969e+00) (11, -2.00118243694305419922e-01) (12, 4.43016201257705688477e-01) (2, -4.53542321920394897461e-01) (3, 2.55197167396545410156e+00) (4, -4.95912820100784301758e-01) (5, -8.53082001209259033203e-01) (6, -5.25370538234710693359e-01) (7, 2.64301943778991699219e+00) (8, -6.20732009410858154297e-01) (9, -6.75620377063751220703e-01) (10, 2.65288949012756347656e+00) (11, -3.62699717283248901367e-01) (12, 3.58115583658218383789e-01) (2, -5.01685798168182373047e-01) (3, 2.71828889846801757812e+00) (4, -5.46611845493316650391e-01) (5, -7.16469466686248779297e-01) (6, -3.85502517223358154297e-01) (7, 2.63519144058227539062e+00) (8, -8.54554355144500732422e-01) (9, -7.61316716670989990234e-01) (10, 2.59169769287109375000e+00) (11, -3.09926480054855346680e-01) (12, 3.13191711902618408203e-01) (2, -7.88671433925628662109e-01) (3, 2.05848479270935058594e+00) (4, -6.84797465801239013672e-01) (5, -7.15158402919769287109e-01) (6, -7.11018502712249755859e-01) (7, 2.22649717330932617188e+00) (8, -6.70953691005706787109e-01) (9, -7.10813403129577636719e-01) (10, 2.22418165206909179688e+00) (11, -6.79055601358413696289e-02) (12, 3.28918099403381347656e-01) (2, -5.50430238246917724609e-01) (3, 2.67556881904602050781e+00) (4, -4.67473268508911132812e-01) (5, -7.22252190113067626953e-01) (6, -5.55353462696075439453e-01) (7, 2.00132536888122558594e+00) (8, -8.00535619258880615234e-01) (9, -7.37867891788482666016e-01) (10, 2.14293646812438964844e+00) (11, -1.98521122336387634277e-01) (12, 3.75960677862167358398e-01) (2, -7.85700261592864990234e-01) (3, 2.17152023315429687500e+00) (4, -6.37714445590972900391e-01) (5, -6.81681573390960693359e-01) (6, -6.44584834575653076172e-01) (7, 2.09263992309570312500e+00) (8, -6.21156692504882812500e-01) (9, -6.90657436847686767578e-01) (10, 2.18932747840881347656e+00) (11, -3.16419243812561035156e-01) (12, 3.72667878866195678711e-01) (2, -7.29021012783050537109e-01) (3, 2.08774447441101074219e+00) (4, -7.83682286739349365234e-01) (5, -7.36074864864349365234e-01) (6, -6.16760313510894775391e-01) (7, 2.12517523765563964844e+00) (8, -7.45444178581237792969e-01) (9, -6.84342503547668457031e-01) (10, 2.22822070121765136719e+00) (11, -7.65980631113052368164e-02) (12, 2.98445016145706176758e-01) (2, -3.10117691755294799805e-01) (3, 2.64285445213317871094e+00) (4, -6.57033443450927734375e-01) (5, -8.80297064781188964844e-01) (6, -4.42499607801437377930e-01) (7, 2.62781310081481933594e+00) (8, -9.07717227935791015625e-01) (9, -7.36789643764495849609e-01) (10, 2.58726954460144042969e+00) (11, -7.77002125978469848633e-02) (12, 3.65206480026245117188e-01) (2, -5.27928471565246582031e-01) (3, 2.10957360267639160156e+00) (4, -4.42193359136581420898e-01) (5, -1.00461947917938232422e+00) (6, -4.91444855928421020508e-01) (7, 2.23313093185424804688e+00) (8, -1.04884302616119384766e+00) (9, -1.05093300342559814453e+00) (10, 2.16046714782714843750e+00) (11, -3.31486195325851440430e-01) (12, 3.42828691005706787109e-01) (2, -6.56765997409820556641e-01) (3, 2.18088269233703613281e+00) (4, -7.38349258899688720703e-01) (5, -7.65141785144805908203e-01) (6, -5.98112463951110839844e-01) (7, 2.19697928428649902344e+00) (8, -7.70472109317779541016e-01) (9, -6.74387156963348388672e-01) (10, 2.05009269714355468750e+00) (11, -2.39994414150714874268e-02) (12, 2.75685876607894897461e-01) (2, -4.40550118684768676758e-01) (3, 2.69220161437988281250e+00) (4, -5.29683113098144531250e-01) (5, -8.27578365802764892578e-01) (6, -4.63078528642654418945e-01) (7, 2.59361410140991210938e+00) (8, -7.71481692790985107422e-01) (9, -7.82102882862091064453e-01) (10, 2.54231643676757812500e+00) (11, -3.58833163976669311523e-01) (12, 3.75484168529510498047e-01) (2, -3.55532974004745483398e-01) (3, 2.70672488212585449219e+00) (4, -4.56948131322860717773e-01) (5, -1.52770960330963134766e+00) (6, -4.61994260549545288086e-01) (7, 2.56229615211486816406e+00) (8, -4.29037064313888549805e-01) (9, -3.71647566556930541992e-01) (10, 2.64070725440979003906e+00) (11, -7.12335854768753051758e-02) (12, -8.30709487199783325195e-02) (2, -6.28814876079559326172e-01) (3, 2.23257994651794433594e+00) (4, -7.58574485778808593750e-01) (5, -6.65386617183685302734e-01) (6, -7.71443128585815429688e-01) (7, 2.18670916557312011719e+00) (8, -6.48845016956329345703e-01) (9, -5.95119118690490722656e-01) (10, 2.21706366539001464844e+00) (11, -4.07654643058776855469e-01) (12, 4.04301077127456665039e-01) (2, -7.57838904857635498047e-01) (3, 2.15608930587768554688e+00) (4, -7.15777337551116943359e-01) (5, -6.95397555828094482422e-01) (6, -7.76943206787109375000e-01) (7, 2.19379091262817382812e+00) (8, -6.84254050254821777344e-01) (9, -6.71922504901885986328e-01) (10, 2.15277075767517089844e+00) (11, -1.83196663856506347656e-01) (12, 3.42020958662033081055e-01) (13, 4.04729157686233520508e-01) (14, 4.67764914035797119141e-01) (15, 4.01349902153015136719e-01) (16, 4.60049748420715332031e-01) (17, 5.57378649711608886719e-01) (18, 5.88289737701416015625e-01) (19, 4.64317709207534790039e-01) (20, 5.28489410877227783203e-01) (21, 3.33094209432601928711e-01) (22, 4.28562790155410766602e-01) (23, 4.72721427679061889648e-01) (24, 2.94134408235549926758e-01) (25, 5.56236088275909423828e-01) (26, 5.49135208129882812500e-01) (27, 3.20738017559051513672e-01) (28, 5.00451028347015380859e-01) (29, 4.52342480421066284180e-01) (30, 2.80053347349166870117e-01) (31, 4.66576725244522094727e-01) (32, 5.06045460700988769531e-01) (33, -5.12268722057342529297e-01) (13, 5.08045792579650878906e-01) (14, 5.28531253337860107422e-01) (15, 4.37134116888046264648e-01) (16, 4.29428964853286743164e-01) (17, 5.43568074703216552734e-01) (18, 4.40673530101776123047e-01) (19, 4.45299923419952392578e-01) (20, 4.62787896394729614258e-01) (21, 3.63066732883453369141e-01) (22, 5.41989326477050781250e-01) (23, 5.34116506576538085938e-01) (24, 4.14648830890655517578e-01) (25, 4.40538316965103149414e-01) (26, 5.37803411483764648438e-01) (27, 5.42671859264373779297e-01) (28, 4.31293576955795288086e-01) (29, 3.18211942911148071289e-01) (30, 3.54696065187454223633e-01) (31, 3.42656105756759643555e-01) (32, 4.43973809480667114258e-01) (33, -5.42863249778747558594e-01) (13, 4.07434850931167602539e-01) (14, 3.47878545522689819336e-01) (15, 4.60477888584136962891e-01) (16, 4.49569195508956909180e-01) (17, 5.05592048168182373047e-01) (18, 5.04752993583679199219e-01) (19, 5.45752465724945068359e-01) (20, 4.85206246376037597656e-01) (21, 3.12609642744064331055e-01) (22, 5.82423210144042968750e-01) (23, 3.49279493093490600586e-01) (24, 2.30878874659538269043e-01) (25, 5.16756415367126464844e-01) (26, 5.22345662117004394531e-01) (27, 5.45091331005096435547e-01) (28, 5.59895515441894531250e-01) (29, 4.83736455440521240234e-01) (30, 2.91413962841033935547e-01) (31, 2.51982480287551879883e-01) (32, 5.22924900054931640625e-01) (33, -5.44750213623046875000e-01) (13, -1.20683202743530273438e+01) (14, -2.69346923828125000000e+01) (15, -2.69502696990966796875e+01) (16, -2.69500293731689453125e+01) (17, -1.20740871429443359375e+01) (18, -2.69348602294921875000e+01) (19, -1.20470905303955078125e+01) (20, -2.70368824005126953125e+01) (21, -2.70884208679199218750e+01) (22, -1.20410146713256835938e+01) (23, -2.69080505371093750000e+01) (24, -1.20564317703247070312e+01) (25, -1.18833370208740234375e+01) (26, -2.69612827301025390625e+01) (27, -2.69752216339111328125e+01) (28, -1.19761190414428710938e+01) (29, -2.70130634307861328125e+01) (30, -2.70791912078857421875e+01) (31, -1.19603891372680664062e+01) (32, -1.20013284683227539062e+01) (33, 2.62179923057556152344e+00) (13, -3.23849231004714965820e-01) (14, -3.52843195199966430664e-01) (15, -3.83368521928787231445e-01) (16, -4.82045948505401611328e-01) (17, -2.84728556871414184570e-01) (18, -4.02433007955551147461e-01) (19, -3.63481998443603515625e-01) (20, -3.67855280637741088867e-01) (21, -4.77042585611343383789e-01) (22, -3.59292745590209960938e-01) (23, -5.04953861236572265625e-01) (24, -4.02894675731658935547e-01) (25, -4.06475722789764404297e-01) (26, -4.06877785921096801758e-01) (27, -4.00741279125213623047e-01) (28, -4.38247621059417724609e-01) (29, -3.77727955579757690430e-01) (30, -4.40289050340652465820e-01) (31, -4.23580169677734375000e-01) (32, -4.36748266220092773438e-01) (33, 2.58717083930969238281e+00) (13, 2.66807585954666137695e-01) (14, 4.53150033950805664062e-01) (15, 3.46331477165222167969e-01) (16, 4.68118935823440551758e-01) (17, 4.95034426450729370117e-01) (18, 5.31088292598724365234e-01) (19, 4.18570399284362792969e-01) (20, 4.02526766061782836914e-01) (21, 3.11266839504241943359e-01) (22, 4.17187929153442382812e-01) (23, 3.86497229337692260742e-01) (24, 2.31955572962760925293e-01) (25, 5.80796658992767333984e-01) (26, 5.84832489490509033203e-01) (27, 5.56629538536071777344e-01) (28, 3.57162117958068847656e-01) (29, 3.76199424266815185547e-01) (30, 4.16820675134658813477e-01) (31, 4.27096784114837646484e-01) (32, 5.52863836288452148438e-01) (33, -4.23680484294891357422e-01) (13, 4.33604508638381958008e-01) (14, 5.32814860343933105469e-01) (15, 3.68159413337707519531e-01) (16, 4.74086910486221313477e-01) (17, 5.90587735176086425781e-01) (18, 4.32142168283462524414e-01) (19, 5.80775082111358642578e-01) (20, 4.08231139183044433594e-01) (21, 4.36617493629455566406e-01) (22, 4.82500314712524414062e-01) (23, 3.90886127948760986328e-01) (24, 3.15065145492553710938e-01) (25, 5.26030898094177246094e-01) (26, 4.02642220258712768555e-01) (27, 5.31495928764343261719e-01) (28, 4.59584742784500122070e-01) (29, 4.00215834379196166992e-01) (30, 4.25916284322738647461e-01) (31, 3.49119931459426879883e-01) (32, 4.19869303703308105469e-01) (33, -4.70901250839233398438e-01) (13, -3.36421251296997070312e-01) (14, -4.45330828428268432617e-01) (15, -6.81102156639099121094e-01) (16, -7.22586035728454589844e-01) (17, -3.47050994634628295898e-01) (18, -6.07703626155853271484e-01) (19, -2.39109218120574951172e-01) (20, -6.03591322898864746094e-01) (21, -6.32313013076782226562e-01) (22, -3.84767383337020874023e-01) (23, -2.89564311504364013672e-01) (24, -3.17037105560302734375e-01) (25, -3.19408893585205078125e-01) (26, -6.90968751907348632812e-01) (27, -3.94901007413864135742e-01) (28, -2.13883996009826660156e-01) (29, -7.07728147506713867188e-01) (30, -4.10681933164596557617e-01) (31, -3.74800920486450195312e-01) (32, -3.68480771780014038086e-01) (33, 1.49318170547485351562e+00) (13, 3.49801629781723022461e-01) (14, 3.83207798004150390625e-01) (15, 4.60666447877883911133e-01) (16, 3.07960331439971923828e-01) (17, 5.00055015087127685547e-01) (18, 5.58081388473510742188e-01) (19, 5.50006508827209472656e-01) (20, 5.62212407588958740234e-01) (21, 4.85682725906372070312e-01) (22, 4.28044706583023071289e-01) (23, 3.88890504837036132812e-01) (24, 4.17834579944610595703e-01) (25, 5.01739859580993652344e-01) (26, 4.67539817094802856445e-01) (27, 5.19416987895965576172e-01) (28, 4.48833495378494262695e-01) (29, 3.51593375205993652344e-01) (30, 3.31630885601043701172e-01) (31, 3.83077740669250488281e-01) (32, 5.42014181613922119141e-01) (33, -5.28697431087493896484e-01) (13, 3.24826091527938842773e-01) (14, 4.48262929916381835938e-01) (15, 3.66810202598571777344e-01) (16, 4.34576928615570068359e-01) (17, 4.98713254928588867188e-01) (18, 4.88551646471023559570e-01) (19, 4.25560712814331054688e-01) (20, 5.33449769020080566406e-01) (21, 3.05791944265365600586e-01) (22, 5.69959640502929687500e-01) (23, 3.49850773811340332031e-01) (24, 2.72816956043243408203e-01) (25, 5.27825176715850830078e-01) (26, 4.01448249816894531250e-01) (27, 4.48782771825790405273e-01) (28, 4.88372087478637695312e-01) (29, 4.67545598745346069336e-01) (30, 3.97622317075729370117e-01) (31, 3.03075134754180908203e-01) (32, 5.92789351940155029297e-01) (33, -3.83767843246459960938e-01) (34, -2.98444211483001708984e-01) (35, -2.61182278394699096680e-01) (36, -3.17106693983078002930e-01) (37, 4.56428289413452148438e+00) (38, 1.91695046424865722656e+00) (39, -1.91796720027923583984e-01) (40, -2.47016996145248413086e-01) (41, 1.87067246437072753906e+00) (42, -3.23834508657455444336e-01) (43, -2.26774960756301879883e-01) (44, 3.00388634204864501953e-01) 
