FANN_FLO_2.1
num_layers=4
learning_rate=0.700000
connection_rate=1.000000
network_type=0
learning_momentum=0.000000
training_algorithm=2
train_error_function=1
train_stop_function=0
cascade_output_change_fraction=0.010000
quickprop_decay=-0.000100
quickprop_mu=1.750000
rprop_increase_factor=1.200000
rprop_decrease_factor=0.500000
rprop_delta_min=0.000000
rprop_delta_max=50.000000
rprop_delta_zero=0.100000
cascade_output_stagnation_epochs=12
cascade_candidate_change_fraction=0.010000
cascade_candidate_stagnation_epochs=12
cascade_max_out_epochs=150
cascade_max_cand_epochs=150
cascade_num_candidate_groups=2
bit_fail_limit=3.49999994039535522461e-01
cascade_candidate_limit=1.00000000000000000000e+03
cascade_weight_multiplier=4.00000005960464477539e-01
cascade_activation_functions_count=10
cascade_activation_functions=3 5 7 8 10 11 14 15 16 17 
cascade_activation_steepnesses_count=4
cascade_activation_steepnesses=2.50000000000000000000e-01 5.00000000000000000000e-01 7.50000000000000000000e-01 1.00000000000000000000e+00 
layer_sizes=3 11 21 2 
scale_included=0
neurons (num_inputs, activation_function, activation_steepness)=(0, 0, 0.00000000000000000000e+00) (0, 0, 0.00000000000000000000e+00) (0, 0, 0.00000000000000000000e+00) (3, 5, 5.00000000000000000000e-01) (3, 5, 5.00000000000000000000e-01) (3, 5, 5.00000000000000000000e-01) (3, 5, 5.00000000000000000000e-01) (3, 5, 5.00000000000000000000e-01) (3, 5, 5.00000000000000000000e-01) (3, 5, 5.00000000000000000000e-01) (3, 5, 5.00000000000000000000e-01) (3, 5, 5.00000000000000000000e-01) (3, 5, 5.00000000000000000000e-01) (0, 5, 0.00000000000000000000e+00) (11, 5, 5.00000000000000000000e-01) (11, 5, 5.00000000000000000000e-01) (11, 5, 5.00000000000000000000e-01) (11, 5, 5.00000000000000000000e-01) (11, 5, 5.00000000000000000000e-01) (11, 5, 5.00000000000000000000e-01) (11, 5, 5.00000000000000000000e-01) (11, 5, 5.00000000000000000000e-01) (11, 5, 5.00000000000000000000e-01) (11, 5, 5.00000000000000000000e-01) (11, 5, 5.00000000000000000000e-01) (11, 5, 5.00000000000000000000e-01) (11, 5, 5.00000000000000000000e-01) (11, 5, 5.00000000000000000000e-01) (11, 5, 5.00000000000000000000e-01) (11, 5, 5.00000000000000000000e-01) (11, 5, 5.00000000000000000000e-01) (11, 5, 5.00000000000000000000e-01) (11, 5, 5.00000000000000000000e-01) (11, 5, 5.00000000000000000000e-01) (0, 5, 0.00000000000000000000e+00) (21, 5, 5.00000000000000000000e-01) (0, 5, 0.00000000000000000000e+00) 
connections (connected_to_neuron, weight)=(0, -6.98416829109191894531e-02) (1, 4.03577715158462524414e-01) (2, 4.38794732093811035156e-01) (0, -7.85595178604125976562e-02) (1, 4.07866626977920532227e-01) (2, 4.00870382785797119141e-01) (0, -9.20311152935028076172e-01) (1, -3.58425453305244445801e-02) (2, 7.03810974955558776855e-02) (0, -1.73044040799140930176e-01) (1, 4.72247213125228881836e-01) (2, 5.00257194042205810547e-01) (0, 1.63939714431762695312e+00) (1, 2.17177137732505798340e-01) (2, 3.71520578861236572266e-01) (0, 1.62180554866790771484e+00) (1, 2.89488911628723144531e-01) (2, 3.20781350135803222656e-01) (0, -9.64772522449493408203e-01) (1, 7.41111263632774353027e-02) (2, 6.76937308162450790405e-03) (0, 5.51185965538024902344e-01) (1, -1.49068906903266906738e-01) (2, -8.02162066102027893066e-02) (0, 4.13524240255355834961e-01) (1, -1.68909355998039245605e-01) (2, -1.07819668948650360107e-01) (0, -1.29177555441856384277e-01) (1, 5.19592225551605224609e-01) (2, 4.60772305727005004883e-01) (3, -1.22777752578258514404e-01) (4, -1.98175922036170959473e-01) (5, -4.19924974441528320312e-01) (6, -7.33273401856422424316e-02) (7, 8.97973716259002685547e-01) (8, 8.09138059616088867188e-01) (9, -5.03219187259674072266e-01) (10, 6.04801714420318603516e-01) (11, 5.12341201305389404297e-01) (12, -1.36764451861381530762e-01) (13, 3.58489453792572021484e-01) (3, 2.09731385111808776855e-01) (4, 2.42148458957672119141e-01) (5, 2.66770064830780029297e-01) (6, 2.23076954483985900879e-01) (7, -3.05964779108762741089e-02) (8, 5.46769946813583374023e-02) (9, 2.39908397197723388672e-01) (10, 1.61641776561737060547e-01) (11, 1.21258385479450225830e-01) (12, 2.37501099705696105957e-01) (13, -7.97877684235572814941e-02) (3, 5.35489976406097412109e-01) (4, 5.38113415241241455078e-01) (5, 8.73287320137023925781e-01) (6, 5.68059802055358886719e-01) (7, -4.61558222770690917969e-01) (8, -3.80904614925384521484e-01) (9, 7.60078668594360351562e-01) (10, -2.19066143035888671875e-01) (11, -6.80587068200111389160e-02) (12, 5.85859298706054687500e-01) (13, -1.43871475011110305786e-02) (3, -1.82397291064262390137e-01) (4, -7.68123939633369445801e-02) (5, -4.72298443317413330078e-01) (6, -7.82136097550392150879e-02) (7, 8.94677639007568359375e-01) (8, 8.60357820987701416016e-01) (9, -3.96634638309478759766e-01) (10, 5.99813461303710937500e-01) (11, 4.99405592679977416992e-01) (12, -1.49316921830177307129e-01) (13, 3.59275698661804199219e-01) (3, -5.86271099746227264404e-03) (4, 8.64084586501121520996e-02) (5, 9.47597101330757141113e-02) (6, 8.54166075587272644043e-02) (7, 1.98909208178520202637e-01) (8, 2.44315251708030700684e-01) (9, 4.23288717865943908691e-02) (10, 3.62875312566757202148e-01) (11, 2.65650600194931030273e-01) (12, 7.47636239975690841675e-03) (13, 4.17749762535095214844e-01) (3, 4.26463574171066284180e-01) (4, 4.23224598169326782227e-01) (5, 7.70420670509338378906e-01) (6, 5.51145374774932861328e-01) (7, -4.16581809520721435547e-01) (8, -4.65844035148620605469e-01) (9, 8.62865149974822998047e-01) (10, -3.07822614908218383789e-01) (11, -1.84157505631446838379e-01) (12, 4.29026246070861816406e-01) (13, 1.82199012488126754761e-02) (3, 2.20813110470771789551e-01) (4, 1.33151009678840637207e-01) (5, 4.09996598958969116211e-01) (6, 1.76216587424278259277e-01) (7, -1.14405773580074310303e-01) (8, -6.92681893706321716309e-02) (9, 5.26161313056945800781e-01) (10, -1.59765064716339111328e-01) (11, 2.35982045531272888184e-01) (12, 1.28103628754615783691e-01) (13, -1.76948800683021545410e-01) (3, 2.04134479165077209473e-01) (4, 2.61208683252334594727e-01) (5, 3.69934231042861938477e-01) (6, 2.88540035486221313477e-01) (7, -1.86280637979507446289e-01) (8, -1.53788655996322631836e-01) (9, 3.97209823131561279297e-01) (10, -9.13266614079475402832e-02) (11, 2.17455580830574035645e-01) (12, 1.94445654749870300293e-01) (13, -2.08727017045021057129e-01) (3, 2.22441896796226501465e-01) (4, 8.90642106533050537109e-02) (5, -1.21830947697162628174e-01) (6, 6.21842369437217712402e-02) (7, 2.67640858888626098633e-01) (8, 3.87280583381652832031e-01) (9, -6.07309117913246154785e-02) (10, 4.21059906482696533203e-01) (11, 3.49872767925262451172e-01) (12, 5.54940328001976013184e-02) (13, 5.56293725967407226562e-01) (3, 1.40689937397837638855e-02) (4, 3.61761897802352905273e-02) (5, -6.01398274302482604980e-02) (6, -6.20487146079540252686e-03) (7, 2.22537964582443237305e-01) (8, 2.15900197625160217285e-01) (9, 1.09963558614253997803e-01) (10, 3.73423933982849121094e-01) (11, 2.36391797661781311035e-01) (12, 2.55856830626726150513e-02) (13, 4.33223813772201538086e-01) (3, 5.03364562988281250000e-01) (4, 4.95600402355194091797e-01) (5, 6.99772119522094726562e-01) (6, 5.98570168018341064453e-01) (7, -3.02040994167327880859e-01) (8, -3.88648778200149536133e-01) (9, 6.74059748649597167969e-01) (10, -1.22841596603393554688e-01) (11, -1.55819445848464965820e-01) (12, 4.97324079275131225586e-01) (13, 3.70763614773750305176e-02) (3, -3.76619398593902587891e-02) (4, 3.01876384764909744263e-02) (5, -2.02711429446935653687e-02) (6, 8.86209532618522644043e-02) (7, 3.39649111032485961914e-01) (8, 2.52653956413269042969e-01) (9, 6.87777027487754821777e-02) (10, 4.85107928514480590820e-01) (11, 3.61570537090301513672e-01) (12, 1.49536997079849243164e-01) (13, 4.75077986717224121094e-01) (3, 3.57545644044876098633e-01) (4, 2.24997952580451965332e-01) (5, 3.82626801729202270508e-01) (6, 2.13536173105239868164e-01) (7, -1.27316564321517944336e-01) (8, -1.18067055940628051758e-01) (9, 3.08006912469863891602e-01) (10, -2.43200920522212982178e-02) (11, 2.06790640950202941895e-02) (12, 3.15127760171890258789e-01) (13, -1.38774171471595764160e-01) (3, 5.50494790077209472656e-01) (4, 4.75452870130538940430e-01) (5, 7.52003431320190429688e-01) (6, 5.67999124526977539062e-01) (7, -3.45564305782318115234e-01) (8, -4.67493832111358642578e-01) (9, 8.52872252464294433594e-01) (10, -3.77296477556228637695e-01) (11, -1.86299905180931091309e-01) (12, 5.47288715839385986328e-01) (13, 3.92660498619079589844e-02) (3, 5.65588116645812988281e-01) (4, 5.35554230213165283203e-01) (5, 6.73807501792907714844e-01) (6, 4.58332479000091552734e-01) (7, -3.76431316137313842773e-01) (8, -3.37590038776397705078e-01) (9, 7.81884551048278808594e-01) (10, -2.86937862634658813477e-01) (11, -1.77753180265426635742e-01) (12, 5.94295382499694824219e-01) (13, 6.29566684365272521973e-02) (3, 4.78068381547927856445e-01) (4, 5.69586515426635742188e-01) (5, 7.85973489284515380859e-01) (6, 5.02680778503417968750e-01) (7, -4.58569347858428955078e-01) (8, -3.35930228233337402344e-01) (9, 8.79815459251403808594e-01) (10, -2.17486292123794555664e-01) (11, -1.51575341820716857910e-01) (12, 5.25355815887451171875e-01) (13, 7.30873551219701766968e-03) (3, -1.04526303708553314209e-01) (4, -1.49502143263816833496e-01) (5, -4.83599871397018432617e-01) (6, -6.64337202906608581543e-02) (7, 7.67538607120513916016e-01) (8, 7.42986679077148437500e-01) (9, -4.29983079433441162109e-01) (10, 5.03214836120605468750e-01) (11, 5.21298348903656005859e-01) (12, -6.42774924635887145996e-02) (13, 3.18614065647125244141e-01) (3, 3.06159615516662597656e-01) (4, 3.17467272281646728516e-01) (5, 3.32061916589736938477e-01) (6, 3.74722659587860107422e-01) (7, 1.18146948516368865967e-01) (8, 9.09372046589851379395e-02) (9, 2.09065377712249755859e-01) (10, -1.28885954618453979492e-01) (11, -1.14260695874691009521e-01) (12, 4.10776138305664062500e-01) (13, -3.55572849512100219727e-02) (3, -3.74358952045440673828e-01) (4, -4.68917548656463623047e-01) (5, 5.59869885444641113281e-01) (6, -4.04702782630920410156e-01) (7, -7.15697184205055236816e-03) (8, -5.08149899542331695557e-02) (9, 3.81330609321594238281e-01) (10, 5.54035782814025878906e-01) (11, 7.46347665786743164062e-01) (12, -3.32467496395111083984e-01) (13, 7.55714848637580871582e-02) (3, 4.28066730499267578125e-01) (4, 5.47097384929656982422e-01) (5, 8.16645801067352294922e-01) (6, 4.66098994016647338867e-01) (7, -4.72230017185211181641e-01) (8, -3.73366296291351318359e-01) (9, 7.13663101196289062500e-01) (10, -3.60094845294952392578e-01) (11, -2.17165902256965637207e-01) (12, 4.03668373823165893555e-01) (13, -4.48538456112146377563e-03) (14, 4.27064508199691772461e-01) (15, 8.97429287433624267578e-02) (16, -4.11132305860519409180e-01) (17, 3.98516029119491577148e-01) (18, 7.34078139066696166992e-02) (19, -2.76841968297958374023e-01) (20, -2.05520257353782653809e-01) (21, -1.85344383120536804199e-01) (22, 9.57838967442512512207e-02) (23, 8.15906822681427001953e-02) (24, -2.33519554138183593750e-01) (25, 7.46993720531463623047e-02) (26, 7.21661373972892761230e-03) (27, -2.71530389785766601562e-01) (28, -2.11256682872772216797e-01) (29, -6.17434680461883544922e-01) (30, 4.12238210439682006836e-01) (31, -7.27953314781188964844e-02) (32, -4.71650883555412292480e-02) (33, -2.51542001962661743164e-01) (34, 3.25362950563430786133e-01) 
